digraph Tree {
node [shape=box, style="filled, rounded", color="black", fontname="Arial"] ;
edge [fontname="Arial"] ;
0 [label="max_heart_rate_achieved <= 147.0\ngini = 0.5\nsamples = 100.0%\nvalue = [0.46, 0.54]\nclass = Disease", fillcolor="#e4f1fb"] ;
1 [label="num_major_vessels <= 0.5\n0.37\n38.9%\n[0.76, 0.24]\nNo Disease", fillcolor="#edaa79"] ;
0 -> 1 [labeldistance=2.5, labelangle=45, headlabel="True"] ;
2 [label="thalassemia_fixed defect <= 0.5\n0.48\n15.3%\n[0.59, 0.41]\nNo Disease", fillcolor="#f7d9c3"] ;
1 -> 2 ;
3 [label="st_slope_flat <= 0.5\n0.24\n8.3%\n[0.86, 0.14]\nNo Disease", fillcolor="#e99558"] ;
2 -> 3 ;
4 [label="chest_pain_type_non-anginal pain <= 0.5\n0.18\n7.0%\n[0.9, 0.1]\nNo Disease", fillcolor="#e88f4f"] ;
3 -> 4 ;
5 [label="0.1\n5.7%\n[0.94, 0.06]\nNo Disease", fillcolor="#e78845"] ;
4 -> 5 ;
6 [label="0.5\n1.3%\n[0.5, 0.5]\nNo Disease", fillcolor="#ffffff"] ;
4 -> 6 ;
7 [label="st_depression <= 0.5\n0.5\n1.3%\n[0.5, 0.5]\nNo Disease", fillcolor="#ffffff"] ;
3 -> 7 ;
8 [label="0.0\n0.6%\n[0.0, 1.0]\nDisease", fillcolor="#399de5"] ;
7 -> 8 ;
9 [label="0.0\n0.6%\n[1.0, 0.0]\nNo Disease", fillcolor="#e58139"] ;
7 -> 9 ;
10 [label="cholesterol <= 231.5\n0.36\n7.0%\n[0.24, 0.76]\nDisease", fillcolor="#76bbed"] ;
2 -> 10 ;
11 [label="st_depression <= 0.3\n0.14\n5.1%\n[0.08, 0.92]\nDisease", fillcolor="#49a5e7"] ;
10 -> 11 ;
12 [label="0.38\n1.3%\n[0.25, 0.75]\nDisease", fillcolor="#7bbeee"] ;
11 -> 12 ;
13 [label="0.0\n3.8%\n[0.0, 1.0]\nDisease", fillcolor="#399de5"] ;
11 -> 13 ;
14 [label="age <= 56.0\n0.38\n1.9%\n[0.75, 0.25]\nNo Disease", fillcolor="#eeab7b"] ;
10 -> 14 ;
15 [label="0.0\n0.6%\n[0.0, 1.0]\nDisease", fillcolor="#399de5"] ;
14 -> 15 ;
16 [label="0.0\n1.3%\n[1.0, 0.0]\nNo Disease", fillcolor="#e58139"] ;
14 -> 16 ;
17 [label="sex_male <= 0.5\n0.19\n23.6%\n[0.89, 0.11]\nNo Disease", fillcolor="#e89051"] ;
1 -> 17 ;
18 [label="max_heart_rate_achieved <= 114.0\n0.49\n3.8%\n[0.57, 0.43]\nNo Disease", fillcolor="#f8e0ce"] ;
17 -> 18 ;
19 [label="0.0\n0.6%\n[1.0, 0.0]\nNo Disease", fillcolor="#e58139"] ;
18 -> 19 ;
20 [label="st_depression <= 1.75\n0.48\n3.2%\n[0.4, 0.6]\nDisease", fillcolor="#bddef6"] ;
18 -> 20 ;
21 [label="0.0\n1.3%\n[0.0, 1.0]\nDisease", fillcolor="#399de5"] ;
20 -> 21 ;
22 [label="0.44\n1.9%\n[0.67, 0.33]\nNo Disease", fillcolor="#f2c09c"] ;
20 -> 22 ;
23 [label="chest_pain_type_non-anginal pain <= 0.5\n0.09\n19.7%\n[0.95, 0.05]\nNo Disease", fillcolor="#e68843"] ;
17 -> 23 ;
24 [label="num_major_vessels <= 3.5\n0.05\n19.1%\n[0.97, 0.03]\nNo Disease", fillcolor="#e6843e"] ;
23 -> 24 ;
25 [label="0.0\n18.5%\n[1.0, 0.0]\nNo Disease", fillcolor="#e58139"] ;
24 -> 25 ;
26 [label="0.0\n0.6%\n[0.0, 1.0]\nDisease", fillcolor="#399de5"] ;
24 -> 26 ;
27 [label="0.0\n0.6%\n[0.0, 1.0]\nDisease", fillcolor="#399de5"] ;
23 -> 27 ;
28 [label="rest_ecg_normal <= 0.5\n0.42\n61.1%\n[0.3, 0.7]\nDisease", fillcolor="#8ec7f0"] ;
0 -> 28 [labeldistance=2.5, labelangle=-45, headlabel="False"] ;
29 [label="thalassemia_fixed defect <= 0.5\n0.27\n31.2%\n[0.16, 0.84]\nDisease", fillcolor="#5fb0ea"] ;
28 -> 29 ;
30 [label="st_slope_flat <= 0.5\n0.5\n8.9%\n[0.45, 0.55]\nDisease", fillcolor="#deeffb"] ;
29 -> 30 ;
31 [label="resting_blood_pressure <= 131.5\n0.46\n3.8%\n[0.64, 0.36]\nNo Disease", fillcolor="#f4c9aa"] ;
30 -> 31 ;
32 [label="0.0\n1.9%\n[1.0, 0.0]\nNo Disease", fillcolor="#e58139"] ;
31 -> 32 ;
33 [label="0.44\n1.9%\n[0.33, 0.67]\nDisease", fillcolor="#9ccef2"] ;
31 -> 33 ;
34 [label="chest_pain_type_typical angina <= 0.5\n0.4\n5.1%\n[0.27, 0.73]\nDisease", fillcolor="#83c2ef"] ;
30 -> 34 ;
35 [label="0.47\n3.8%\n[0.38, 0.62]\nDisease", fillcolor="#b0d8f5"] ;
34 -> 35 ;
36 [label="0.0\n1.3%\n[0.0, 1.0]\nDisease", fillcolor="#399de5"] ;
34 -> 36 ;
37 [label="resting_blood_pressure <= 113.5\n0.07\n22.3%\n[0.04, 0.96]\nDisease", fillcolor="#41a1e6"] ;
29 -> 37 ;
38 [label="sex_male <= 0.5\n0.22\n2.5%\n[0.12, 0.88]\nDisease", fillcolor="#55abe9"] ;
37 -> 38 ;
39 [label="0.0\n1.9%\n[0.0, 1.0]\nDisease", fillcolor="#399de5"] ;
38 -> 39 ;
40 [label="0.0\n0.6%\n[1.0, 0.0]\nNo Disease", fillcolor="#e58139"] ;
38 -> 40 ;
41 [label="chest_pain_type_typical angina <= 0.5\n0.04\n19.7%\n[0.02, 0.98]\nDisease", fillcolor="#3e9fe6"] ;
37 -> 41 ;
42 [label="0.07\n12.7%\n[0.04, 0.96]\nDisease", fillcolor="#40a1e6"] ;
41 -> 42 ;
43 [label="0.0\n7.0%\n[0.0, 1.0]\nDisease", fillcolor="#399de5"] ;
41 -> 43 ;
44 [label="age <= 56.5\n0.49\n29.9%\n[0.43, 0.57]\nDisease", fillcolor="#cce6f8"] ;
28 -> 44 ;
45 [label="thalassemia_reversible defect <= 0.5\n0.39\n17.8%\n[0.27, 0.73]\nDisease", fillcolor="#80c0ee"] ;
44 -> 45 ;
46 [label="resting_blood_pressure <= 112.5\n0.23\n14.0%\n[0.14, 0.86]\nDisease", fillcolor="#58ace9"] ;
45 -> 46 ;
47 [label="0.49\n1.9%\n[0.56, 0.44]\nNo Disease", fillcolor="#fae6d7"] ;
46 -> 47 ;
48 [label="0.0\n12.1%\n[0.0, 1.0]\nDisease", fillcolor="#399de5"] ;
46 -> 48 ;
49 [label="num_major_vessels <= 0.5\n0.44\n3.8%\n[0.67, 0.33]\nNo Disease", fillcolor="#f2c09c"] ;
45 -> 49 ;
50 [label="0.48\n3.2%\n[0.6, 0.4]\nNo Disease", fillcolor="#f6d5bd"] ;
49 -> 50 ;
51 [label="0.0\n0.6%\n[1.0, 0.0]\nNo Disease", fillcolor="#e58139"] ;
49 -> 51 ;
52 [label="chest_pain_type_typical angina <= 0.5\n0.44\n12.1%\n[0.67, 0.33]\nNo Disease", fillcolor="#f2c09c"] ;
44 -> 52 ;
53 [label="resting_blood_pressure <= 136.0\n0.48\n10.2%\n[0.59, 0.41]\nNo Disease", fillcolor="#f7d8c1"] ;
52 -> 53 ;
54 [label="0.14\n5.1%\n[0.92, 0.08]\nNo Disease", fillcolor="#e78c49"] ;
53 -> 54 ;
55 [label="0.41\n5.1%\n[0.29, 0.71]\nDisease", fillcolor="#88c4ef"] ;
53 -> 55 ;
56 [label="0.0\n1.9%\n[1.0, 0.0]\nNo Disease", fillcolor="#e58139"] ;
52 -> 56 ;
}